digraph Tree {
node [shape=box, style="filled, rounded", color="black", fontname=helvetica] ;
edge [fontname=helvetica] ;
0 [label="petal length (cm) <= 2.45\ngini = 0.66\nsamples = 97\nvalue = [54, 53, 43]\nclass = setosa", fillcolor="#fffefd"] ;
1 [label="gini = 0.0\nsamples = 32\nvalue = [54, 0, 0]\nclass = setosa", fillcolor="#e58139"] ;
0 -> 1 [labeldistance=2.5, labelangle=45, headlabel="True"] ;
2 [label="petal length (cm) <= 4.75\ngini = 0.49\nsamples = 65\nvalue = [0, 53, 43]\nclass = versicolor", fillcolor="#dafae7"] ;
0 -> 2 [labeldistance=2.5, labelangle=-45, headlabel="False"] ;
3 [label="gini = 0.0\nsamples = 27\nvalue = [0, 47, 0]\nclass = versicolor", fillcolor="#39e581"] ;
2 -> 3 ;
4 [label="petal width (cm) <= 1.75\ngini = 0.21\nsamples = 38\nvalue = [0, 6, 43]\nclass = virginica", fillcolor="#9355e9"] ;
2 -> 4 ;
5 [label="sepal length (cm) <= 6.5\ngini = 0.41\nsamples = 5\nvalue = [0, 5, 2]\nclass = versicolor", fillcolor="#88efb3"] ;
4 -> 5 ;
6 [label="petal length (cm) <= 5.35\ngini = 0.44\nsamples = 3\nvalue = [0, 1, 2]\nclass = virginica", fillcolor="#c09cf2"] ;
5 -> 6 ;
7 [label="sepal width (cm) <= 2.75\ngini = 0.5\nsamples = 2\nvalue = [0, 1, 1]\nclass = versicolor", fillcolor="#ffffff"] ;
6 -> 7 ;
8 [label="gini = 0.0\nsamples = 1\nvalue = [0, 1, 0]\nclass = versicolor", fillcolor="#39e581"] ;
7 -> 8 ;
9 [label="gini = 0.0\nsamples = 1\nvalue = [0, 0, 1]\nclass = virginica", fillcolor="#8139e5"] ;
7 -> 9 ;
10 [label="gini = 0.0\nsamples = 1\nvalue = [0, 0, 1]\nclass = virginica", fillcolor="#8139e5"] ;
6 -> 10 ;
11 [label="gini = 0.0\nsamples = 2\nvalue = [0, 4, 0]\nclass = versicolor", fillcolor="#39e581"] ;
5 -> 11 ;
12 [label="petal length (cm) <= 4.85\ngini = 0.05\nsamples = 33\nvalue = [0, 1, 41]\nclass = virginica", fillcolor="#843ee6"] ;
4 -> 12 ;
13 [label="sepal width (cm) <= 3.1\ngini = 0.44\nsamples = 3\nvalue = [0, 1, 2]\nclass = virginica", fillcolor="#c09cf2"] ;
12 -> 13 ;
14 [label="gini = 0.0\nsamples = 2\nvalue = [0, 0, 2]\nclass = virginica", fillcolor="#8139e5"] ;
13 -> 14 ;
15 [label="gini = 0.0\nsamples = 1\nvalue = [0, 1, 0]\nclass = versicolor", fillcolor="#39e581"] ;
13 -> 15 ;
16 [label="gini = 0.0\nsamples = 30\nvalue = [0, 0, 39]\nclass = virginica", fillcolor="#8139e5"] ;
12 -> 16 ;
}